-0.008398201
-0.035690468
0.0072068
0.043128338
-0.05414543
0.029323712
0.0660201
0.005526081
0.054060638
-0.09225751
-0.019656437
0.07546846
0.13616145
-0.13103543
-0.025795264
0.14303151
-0.037283592
0.032220278
-0.061299294
-0.0520179
-0.1358106
-0.04030914
0.14602762
0.16022561
-0.14029098
-0.0691671
0.06005568
-0.11800709
0.037639104
-0.027912317
-0.10787674
-0.055670876
0.10787657
0.17489472
-0.101602435
0.16115047
0.06435722
0.035676647
-0.1271163
-0.11264324
0.0971655
-0.08926549
0.058230445
0.07690738
0.12092501
0.04193164
0.02293587
-0.027364548
-0.10798107
0.014065581
-0.041563913
-0.03545492
0.059373584
0.041298866
0.041582193
0.040188916
0.056822322
0.034220193
-0.13366427
0.13226388
-0.052473135
-0.076459326
0.121492766
-0.05375697
0.023534922
0.06655918
-0.11138788
0.14269318
0.008879303
0.1516707
-0.05367246
0.15999909
-0.037528504
0.04845997
0.094054446
0.13673124
-0.06839893
0.12509099
0.15476374
0.13302404
0.102938995
-0.0038979102
-0.01879988
-0.13021569
0.025683478
0.058985315
-0.01670779
-0.098923884
-0.10726542
-0.05347349
0.09356787
0.046565335
-0.118817516
0.083771646
0.15074387
-0.05586192
0.052399926
0.14581601
0.052663688
-0.055575304
0.101504155
0.013903888
0.07706414
-0.05473076
0.055555023
0.08269421
0.002500951
-0.07999484
0.03590298
-0.079428524
-0.06696934
-0.09271027
0.08307221
-0.1026364
-0.0012717288
-0.1182493
-0.057877492
-0.022229386
0.1066362
-0.020768292
-0.117505625
-0.008281554
0.12198222
-0.013210281
0.114046484
-0.14520705
-0.10468096
0.13040945
-0.1349008
0.026911957
-0.009131818
-0.116347864
-0.10689568
0.12634893
0.17270824
0.007821224
-0.013385093
0.009462996
0.081224926
-0.14348689
-0.13584438
-0.09257598
0.09588427
0.12232218
-0.02575922
-0.0911863
0.072903894
-0.08996615
0.08899237
-0.078540094
0.15842135
0.07852663
0.07478727
0.04186618
0.051758513
0.12774517
0.076318145
0.08186593
-0.12730645
-0.108768344
-0.08762315
0.027550846
0.09080104
0.041283183
-0.09685146
-0.13881509
0.06974157
0.066875175
-0.015524106
-0.08410622
0.0622674
0.14091846
-0.00960724
0.12538704
-0.088425234
0.0113764955
0.12223666
-0.10739217
-0.038245372
-0.03501744
0.12239595
-0.12566821
-0.03796068
0.1480402
-0.06475153
-0.09119495
0.09463744
0.10133773
0.014872047
-0.10559938
0.04289665
0.04983224
-0.050045304
-0.077550374
-0.05423199
-0.04058542
-0.05930608
-0.11871946
0.14456315
0.10015059
0.04559193
0.039596193
0.023261992
-0.059033368
-0.09355572
0.028134497
0.13059962
0.07603549
-0.07199784
0.08110588
-0.09586631
0.010642401
0.053938784
0.11448803
0.061290678
-0.055591438
-0.07340384
-0.016807104
-0.07110694
-0.07889902
0.04978175
0.16620012
-0.08183064
-0.059400503
-0.04203791
0.10756181
0.09433064
0.008194647
-0.12568468
-0.15378286
0.029739885
0.105510406
0.0675563
0.07817244
-0.033064585
-0.046420906
-0.053145584
-0.025190886
0.049353756
-0.06003013
-0.1290363
0.103568204
0.056234643
-0.025749775
-0.027788354
0.011181721
-0.15651393
-0.018334635
0.036262106
0.12694535
0.0475338
0.06322341
-0.122610845
-0.07573606
0.044005208
-0.1484039
-0.019494412
0.052992616
0.14765847
-0.14695767
-0.12554795
-0.0873007
-0.05101243
-0.13142002
-0.0783399
-0.110091634
0.14675331
-0.046978902
0.14080589
0.06853005
-0.033402886
0.053998105
0.1358802
0.040786996
-0.12368272
0.028296003
0.08988098
0.05227186
-0.08801838
0.11616087
-0.035487413
-0.08657008
0.13408369
-0.14130647
-0.01408674
0.016520478
-0.14948067
0.036901344
0.09105625
0.1280143
0.07337189
-0.08131903
-0.037989993
-0.054707963
-0.12963276
-0.037103266
-0.07572659
-0.029186098
0.14669724
0.08565237
0.13830422
0.08466986
0.016722543
0.043334488
0.014074588
-0.07030189
0.07136973
0.098298036
0.14103575
-0.0126497215
-0.10892297
0.110484876
0.02862115
0.07966999
0.08846907
0.076292984
0.13120036
0.11462229
-0.010407429
0.015258841
0.13275191
0.08569783
-0.1129018
-0.11846476
-0.089933895
-0.07089633
0.123589784
0.03597523
0.07763877
-0.049705435
-0.022052074
0.1239647
-0.05225348
-0.04301285
-0.07324608
0.063693345
-0.07265467
-0.113100365
0.1635821
-0.13522917
-0.07515709
0.12899084
0.10103654
0.05901557
0.07105767
0.12232777
-0.0009511194
-0.041428614
0.15691419
0.13182046
0.011906107
0.09559285
-0.04976615
-0.07629168
-0.093726195
0.08057894
0.041636042
-0.031575665
-0.026810793
0.11482311
-0.08144586
0.11989695
0.15736255
-0.03677016
0.045746423
0.14927793
0.103423476
0.02293213
0.01746494
-0.009611653
0.115510784
-0.064544536
0.05256468
-0.020164296
0.042681348
-0.057028413
-0.07666379
0.026391428
-0.06906895
-0.08809322
0.1414994
0.017058222
-0.12249379
0.1197644
-0.07214449
-0.07012568
0.07592973
-0.08620511
0.15869647
0.07405285
-0.059278894
0.0018899074
-0.09827154
-0.08430825
0.0740334
-0.03137857
-0.075890884
-0.09558783
-0.025721304
-0.053685352
0.016711976
-0.059602976
-0.14327627
-0.008390958
-0.09824058
0.10808
0.13424598
0.09635359
0.12762257
-0.017488377
0.093288556
0.10502874
-0.083977684
0.024253443
-0.07970192
-0.007279251
0.1377523
0.0071180263
-0.034092817
-0.023304187
0.011870124
0.1048964
0.038113184
0.05205687
0.1205986
0.11774434
-0.024501173
0.0004346185
0.027339842
-0.13785857
-0.03929214
-0.1641606
0.13464825
0.08377249
-0.044012953
-0.02810882
-0.13794565
-0.14954808
0.11954191
-0.03470469
-0.05996231
0.023625346
0.09239101
-0.10710391
-0.054677155
-0.11356874
0.044217676
0.019515289
-0.07363759
0.1310102
-0.011222218
0.041057847
-0.07337971
0.09731314
0.10824016
0.14032619
-0.02969949
-0.018709335
0.05139344
-0.055114698
0.08796114
-0.14380819
-0.03154966
-0.14294116
-0.020545846
-0.100183085
0.08842875
0.019463073
-0.1312057
0.15333347
0.114692315
-0.13625231
-0.058953207
0.069837384
-0.0494843
0.015397922
0.13405843
0.06603026
0.07936196
0.021706631
-0.015383078
-0.041131135
-0.04942918
-0.056066245
-0.06481093
-0.027854538
0.05414871
-0.12867099
0.08199538
-0.06930931
-0.025236687
-0.017435115
0.0520357
-0.03518239
0.089041196
0.079827726
-0.13742988
0.10667331
0.01710253
0.023019241
0.08179908
0.16564971
-0.14196633
-0.06934268
-0.033559814
0.098401256
-0.07367107
0.05320849
0.061723627
0.07624314
-0.025788913
0.120864965
0.0710673
0.1399558
-0.046326138
0.12976061
-0.12322492
-0.12305337
0.09240082
-0.07236975
0.1391583
-0.054598026
0.08697764
0.11113795
0.025146706
-0.04468327
0.12775177
0.1385486
-0.10565724
0.05024382
0.12112472
-0.13430496
0.107867494
0.018809741
-0.037599217
-0.10940985
-0.08010824
-0.05924087
0.118104145
-0.11551551
-0.090876624
-0.13694604
-0.1471183
-0.104843505
0.062287908
-0.03208449
0.10286104
0.13508536
-0.027001666
0.11519605
-0.018517137
0.1510281
-0.104782656
0.0013608428
0.030829964
0.06245516
0.15541007
0.10074681
-0.08711235
-0.07918532
-0.010888719
-0.0029996482
-0.07251001
0.07672597
-0.06273527
-0.04904587
-0.07706142
-0.08404301
0.13015728
0.13201575
-0.0068048113
-0.10955289
0.05806243
0.15021828
-0.065561645
-0.03346499
-0.09781681
-0.067328416
-0.1233009
-0.11596418
-0.13228136
0.13362928
0.1115416
-0.099059254
0.043476332
0.009774363
-0.011199011
0.06455138
-0.086820915
-0.05079525
0.12564437
-0.06625795
0.10357771
0.11335358
0.16194561
-0.02750007
0.16022433
0.012132965
-0.1061846
-0.064779356
-0.0037867562
0.051764593
0.13335836
0.084077194
0.011299055
-0.13018137
0.0022196143
0.1063366
0.0144540025
-0.062946364
0.14516015
-0.14315526
0.031262398
-0.12864144
-0.039364163
0.006098632
0.13964905
-0.060687184
0.012568266
0.064111464
0.033193797
0.061805412
0.11848437
0.14651383
-0.054320365
-0.022313898
0.08559365
0.15397236
0.056123838
-0.08176322
0.040165387
-0.067992225
0.07530366
0.15981317
-0.046305913
0.094228685
-0.059022833
-0.13382371
-0.12470798
-0.060555935
-0.1366314
-0.025395414
-0.03725241
0.09917674
-0.032658935
0.14312938
-0.09202408
-0.0865986
-0.12789513
-0.011983063
-0.028472494
0.1017511
-0.0669441
0.019548029
0.10811951
-0.10780921
0.043225456
-0.056261756
-0.04752063
0.15434195
-0.11572686
-0.009337981
0.06363098
0.09674942
0.078247115
-0.13380313
0.14140712
0.050239425
0.0153545365
0.11998634
0.04826449
0.0013475557
0.092259325
-0.03233477
-0.06947722
0.035631668
0.029839562
-0.07686891
-0.026219904
-0.035828803
0.056910995
-0.07566917
-0.071371704
-0.110011846
0.08291132
0.16996966
-0.105547085
-0.015893903
0.079991765
0.0023271993
0.046001874
0.0027447208
-0.089616075
-0.052927036
-0.024152555
-0.035372734
-0.053255208
0.03648727
0.12895505
-0.028691141
0.13667178
0.040544182
0.04158363
0.075014554
-0.044683136
0.011545942
-0.0139780175
0.0986228
0.14239866
0.062597364
-0.07877581
-0.11454837
0.010536566
-0.06279324
-0.109801665
-0.07892961
-0.0124148205
0.14340857
-0.12790106
-0.0389958
-0.0011476936
0.07944341
0.05138116
0.0013009901
0.15009227
0.081704155
-0.07120017
-0.091635734
0.09797132
0.055046078
-0.067626916
0.026410345
0.042017676
-0.10443442
0.089705326
0.09110579
0.02233917
-0.08244735
0.11435196
-0.028228246
0.02600632
0.07433269
0.07865633
0.0864507
-0.02899672
-0.054020096
0.06406338
-0.03795433
0.0016333727
0.030529115
0.017365754
-0.043351468
-0.13348348
0.0982815
0.11783793
-0.04737291
0.069548115
-0.021907993
0.08683711
0.046733193
-0.065404885
-0.013589006
-0.11493464
-0.08777134
0.034045428
0.105284184
0.1272695
0.06485159
0.12398977
0.041837133
0.045708537
-0.0019871837
-0.08778917
-0.0017491448
-0.13209662
-0.10224765
-0.09326091
0.16091341
0.1380372
-0.050763257
-0.13958997
0.055932548
-0.08861709
-0.13861996
-0.028902981
-0.06004878
0.074548535
0.034815006
-0.09205461
-0.047956884
0.13587236
0.15542458
-0.059923477
-0.03336753
0.12951824
-0.058335677
0.113467254
0.028609732
0.15109481
0.14210305
0.014616151
0.10324413
0.13512091
-0.008997092
-0.06408747
0.011411263
-0.13187191
0.14192232
-0.10023546
-0.069227345
-0.07236707
-0.07517577
0.08832541
0.029234393
0.06074282
0.08921877
-0.12974615
-0.13980684
-0.059462544
0.13819589
-0.071883745
-0.11957571
0.041139606
-0.077461064
0.008649463
0.123193674
-0.14609842
0.035170536
0.12108667
-0.0708236
-0.08735896
0.04766508
-0.06943395
0.13430904
-0.10008126
-0.040608164
0.10739681
-0.026234742
0.09324434
-0.106082864
0.008518944
0.13347004
-0.014849978
-0.091465235
-0.063306004
0.16455951
0.024602298
-0.14217731
-0.124864824
-0.045315072
0.13236165
-0.107319675
0.060913894
-0.102051586
-0.0009472666
-0.012826712
0.15182383
-0.028853318
0.02032711
-0.0071544885
0.017272318
0.063485
0.066626646
0.089672945
0.023383146
-0.038225163
-0.04392855
0.072683655
-0.11079059
0.057376385
-0.16113788
0.105635
-0.022632107
0.10238463
0.15476954
0.090878546
-0.07590558
0.07713943
0.01821309
-0.113231115
0.032965705
-0.079094596
-0.028716262
0.11567184
0.108397245
0.032122113
-0.05523304
-0.13942498
0.027053842
-0.071851686
0.09970041
-0.00058281043
0.05518914
0.14561442
0.15032479
0.14046527
-0.13564686
0.05781685
-0.04382948
-0.056978
0.08990196
-0.1400024
-0.14558256
0.1338265
0.07410686
0.1621694
-0.039398193
0.09470537
0.006020749
-0.07090004
-0.14116935
0.040149406
-0.07644976
-0.031494487
0.035785556
0.08726223
0.084843874
-0.14164296
0.04570015
-0.13794589
-0.048692644
-0.069631204
0.054341108
-0.040323447
0.011121038
0.008952845
-0.015574137
-0.023747172
0.124881245
0.037038226
0.1143038
0.06567917
0.13828999
-0.03903967
-0.030354183
-0.10226047
0.056435905
-0.104154974
-0.09938881
0.023890944
0.06363981
-0.12977082
-0.0687181
-0.031547252
0.09579691
0.062244527
-0.1263781
0.10713821
-0.13278289
-0.024650922
-0.09202953
0.061802138
0.11733965
-0.040556017
-0.10335501
0.082374066
0.05290307
0.08210429
-0.032673907
-0.10066514
-0.07739088
-0.09644857
-0.12279741
0.115843154
0.053660613
-0.07776912
0.04928034
-0.10380611
0.0767245
0.10418427
-0.034371108
0.13100278
0.01398366
0.13086836
0.13071607
-0.022787005
0.13020869
-0.045503724
0.15497532
-0.042283464
0.083655305
-0.05340798
-0.05425245
-0.036051203
0.051224217
0.13241734
-0.07801521
0.10592109
0.10073378
0.11818447
-0.06505965
-0.028340548
-0.06782022
-0.09103517
-0.09632269
-0.023909945
0.007746384
0.07017637
-0.105981454
-0.036332663
0.1088302
-0.103035055
-0.057802577
0.09707331
0.07344939
0.15701328
-0.050909217
0.08718294
0.028430114
-0.06837326
-0.08336172
-0.09071685
-0.076573946
-0.03479063
-0.04220767
-0.07423467
0.039424613
0.14446494
0.09732124
-0.14903487
-0.12704396
-0.098339655
0.15793353
0.11752719
0.17868702
-0.13371424
0.10793588
0.07132921
-0.06363258
-0.12712128
0.08407215
-0.1308843
-0.10686859
-0.019212358
0.056044623
0.104740076
-0.035697456
0.14020438
-0.017714
-0.11761801
0.1063305
0.034147754
0.082776114
-0.12636842
0.05791139
0.049797468
0.000326272
-0.09226121
0.07660313
0.028169988
-0.013937911
0.1385306
-0.11727027
-0.08919699
0.009459721
0.16890502
0.09899719
-0.1322636
0.054153956
0.17134002
0.021362018
0.07747264
-0.0888346
0.11886587
-0.11329837
-0.076470904
0.17254153
-0.09748281
-0.12525849
-0.012532813
-0.01906775
0.08016952
-0.08428101
-0.10457036
0.039609037
-0.10037972
0.16353934
0.1018988
-0.1297709
0.09744859
-0.09570506
-0.007723276
0.13467096
0.17243795
-0.081507064
0.022711705
0.09336759
0.098760836
0.020378277
0.0382288
-0.09889618
0.17802477
0.06357915
0.16423693
-0.11379177
0.055949446
-0.13029256
-0.044466026
-0.08617703
0.13349295
-0.10740364
0.14962497
0.11758377
-0.06844245
-0.096705616
-0.11131139
0.092071734
0.050378043
-0.1011459
0.045688618
0.14572415
0.060028095
0.05498474
0.12326628
0.0689993
-0.12776192
0.14800075
-0.08350172
0.015394451
0.029204467
0.04448705
-0.03832349
-0.116066664
-0.018619493
0.08838262
-0.14412221
0.056603994
0.13161696
0.029165931
1.12095495e-05
-0.07923102
-0.041622803
0.052688226
-0.094443545
0.13086666
-0.12930083
0.007315309
0.12305559
-0.012341397
0.020472942
-0.040023167
-0.066229664
-0.13211963
0.04397361
-0.035941355
0.0080667045
0.014357413
0.09048265
0.09623207
0.13604431
0.1503858
-0.073769055
0.016944556
-0.094871275
-0.027656384
-0.03509653
-0.013380686
0.057502504
0.11241709
0.054428
0.045276273
0.15269403
-0.10625235
-0.12071023
-0.10130142
-0.10290148
0.04595103
-0.04725181
0.15469943
0.036941282
-0.11386669
0.018145368
0.086930156
-0.041304294
0.10562344
-0.10405385
-0.13921082
0.00038106795
-0.13740125
0.029520528
0.050022285
0.11284404
0.115410104
-0.118631184
0.015659213
0.14591484
-0.07319539
-0.070012495
-0.019886022
0.07604387
-0.118079856
0.04991773
0.15555415
-0.050783962
0.06864192
-0.019904234
0.13353725
-0.06456796
-0.038911168
0.14869978
0.040139906
-0.041218165
-0.09361046
0.08374303
-0.09711859
0.008266459
0.13644554
0.04976115
-0.072536714
0.07768156
-0.13060474
-0.07604451
0.030546542
-0.124317504
0.079238966
-0.0087451
-0.028972909
0.12260869
0.12801756
0.08236718
0.07159512
-0.034603663
-0.12282352
0.037550513
-0.1500465
-0.04837638
0.13206995
0.13720085
0.015296061
-0.08878762
0.09917782
0.14680907
0.121966444
-0.15331003
0.04847891
-0.14049831
-0.045963883
-0.021529568
-0.0116159
-0.12226405
-0.03995853
-0.0135410875
-0.09402994
-0.037109632
-0.020248003
0.031321947
-0.01986815
-0.027847143
0.033565845
0.107428715
-0.089117795
-0.027243858
-0.046163276
-0.09322218
0.09229997
0.057688497
0.0822848
0.07661879
-0.06941021
-0.037940793
-0.11644746
0.09272202
-0.018141791
0.062378265
-0.02359046
0.032222256
-0.03899377
0.073562354
0.13858774
0.14282358
0.033672918
0.14850357
-0.15997188
-0.12757526
0.14400205
-0.031407624
-0.02707413
-0.02176762
0.01879838
0.052160364
0.033295047
-0.12857108
0.020070357
0.011526756
-0.033241738
0.09318192
0.12750165
0.064751
-0.026569506
-0.0018396078
-0.074003845
-0.021224737
0.13575019
0.1447044
0.07452716
-0.041887548
0.05488244
-0.06273549
-0.11101722
0.115753405
0.1263812
0.10568556
0.00048410872
0.08394722
0.06945754
0.009964853
-0.075266995
-0.15213993
0.112681404
0.14487553
-0.07267646
-0.026943868
0.06959163
-0.14585246
-0.12224882
0.10874625
-0.0653459
-0.13991924
0.10564725
-0.07050285
0.07617418
0.043597758
0.021208983
0.121988304
0.08479437
-0.08743786
0.0116892075
-0.021507464
0.1020845
-0.0691031
0.06623613
-0.14986394
0.12899032
-0.004998116
0.05424856
0.06612478
0.09584557
-0.032677785
-0.12546349
-0.03221855
0.045277238
-0.05196778
0.05262779
-0.13818844
0.079596065
0.015196466
0.053016704
0.15085503
0.05363263
-0.1165973
-0.053322643
-0.069702454
0.11993387
-0.03797189
0.0074321497
-0.15110497
0.024787145
0.088174865
-0.15168837
-0.05757603
0.09755061
0.07656374
-0.11670158
0.0009374986
-0.0004041309
-0.04894038
-0.06862677
0.09892897
-0.08520316
0.031154012
0.068454355
0.086814724
0.09247126
0.027669668
-0.072820105
-0.098537646
0.022602413
0.011035347
0.04730164
0.1309753
-0.006215924
-0.12076335
0.11647853
0.048074767
0.01744493
0.07520381
0.025718184
-0.051202487
0.00882298
0.09986914
-0.10717933
0.01298388
0.055460066
-0.07005958
0.10375355
0.0822107
-0.0558086
-0.02443644
0.049727973
0.02973527
-0.12412492
-0.057248015
-0.027615363
0.07307129
0.08753254
0.07850017
0.038323067
-0.08604516
-0.07874236
-0.069481246
0.11439016
-0.066182286
-0.09728626
-0.12016045
-0.046937447
0.105283745
0.12535019
0.0009713245
0.0044232435
0.137662
0.019629229
-0.084066585
0.03897262
0.15383989
0.12165791
-0.023794953
-0.08114084
-0.103476584
0.14133544
0.10218016
-0.013003481
0.0535134
0.096737064
0.088652074
-0.0576619
-0.100834645
0.14698029
-0.09562009
0.037475653
-0.11149621
0.074760005
0.09961027
0.067566015
-0.019040078
0.14532064
-0.040119257
0.14550857
-0.11182199
-0.008619293
-0.11644067
-0.034975678
-0.029668
-0.014321223
-0.060724273
0.09401535
0.14423601
-0.1195714
0.12455862
0.03683933
-0.057966355
0.14937894
0.013853665
0.027311044
0.032072384
-0.15657312
0.10328454
-0.00828806
0.12018573
-0.1315854
-0.006960986
-0.05844597
0.025826676
-0.020611841
0.14513831
-0.048429776
-0.1283324
0.07156701
-0.035948113
0.114220366
0.11225641
0.14276555
0.067709476
0.07154199
0.12669595
0.07052519
-0.12562832
-0.008925809
-0.033880096
0.10483757
-0.06945395
0.019097824
-0.053428095
-0.013091214
-0.14982489
-0.12119091
-0.030117651
0.11909936
0.13590144
-0.04046667
0.11577166
0.13350883
0.010019184
-0.06395334
-0.14742453
-0.14366972
-0.019655788
0.1379293
0.06451798
0.07869193
-0.010655334
-0.08263977
0.024970852
-0.15184413
-0.13193959
0.042188384
0.09639085
-0.031177415
0.12713036
0.080463566
0.052933842
0.012416581
-0.06259382
-0.055501986
-0.059489135
0.06809053
0.14222991
0.024498548
-0.07009297
0.1262254
0.029756084
0.060783245
0.031608813
0.089940466
-0.08027522
-0.03839433
-0.04697495
-0.024807528
0.0074277427
-0.14439797
0.07520002
-0.014453652
-0.15792537
0.08818368
-0.018094124
0.049928065
-0.103847705
-0.15967588
0.13279001
-0.022627264
0.12990776
-0.012205252
-0.11380356
0.06896222
-0.04779612
-0.111977756
-0.13410136
0.14752573
-0.09226152
0.047872167
0.07942521
0.03304198
0.026997814
-0.14280501
0.019360172
0.031499445
0.12716681
-0.1020515
-0.0358293
0.08778051
-0.031023707
0.14908078
-0.06462044
0.08483628
0.12703633
-0.13086523
-0.11802355
0.017611695
0.014483724
0.11964073
0.096748106
0.037913453
0.03946105
-0.12085071
0.0011759407
-0.10568753
-0.02387306
-0.07538694
-0.05546679
0.10954023
-0.089165986
0.02362427
0.08843122
0.040876016
-0.015526646
0.0065375413
0.0929772
0.057178605
0.1388183
0.10807778
0.10500798
-0.1270278
-0.06532331
0.081077695
0.037781276
-0.11549753
0.10036536
-0.039986983
-0.0094291605
-0.13858183
-0.16082951
0.12420941
-0.06349184
0.059985675
0.08651889
-0.068450786
0.0919721
0.035017874
0.1122864
0.03388281
0.1429997
-0.11762562
-0.064387314
-0.1244549
-0.019637123
0.13298921
0.087372854
0.01916651
0.00070679246
0.013485399
-0.08855123
0.058040455
-0.0028212534
-0.10122216
0.063998125
-0.05514696
-0.07168125
-0.10176203
-0.036658626
-0.118230484
0.047263335
-0.07454365
0.10462295
0.027785683
0.11010058
0.09245192
0.14368798
-0.0744116
0.032756425
0.054870207
-0.11303886
0.026593775
-0.1267663
0.08657262
0.06660732
-0.068335146
-0.14867823
-0.039830435
0.15324289
0.1157454
-0.09995867
0.058287933
0.1390379
0.008742814
-0.058888655
0.07433111
0.14269282
0.023593143
-0.004787244
0.15125072
-0.1163758
0.067293376
0.045421816
0.15335497
-0.0625568
-0.092128165
-0.123331055
0.0060877283
0.08752667
0.018353099
-0.01572845
0.098828346
-0.13826868
0.1598094
-0.11219327
0.12547614
0.11851117
-0.104275905
-0.07483874
0.1465133
0.09010456
-0.08012812
-0.12676506
-0.11272669
-0.1398162
0.063353375
0.07278325
-0.01629081
0.028662324
-0.0624397
-0.02237844
-0.04583528
-0.09691756
-0.13000427
-0.06673721
-0.024811339
0.071003735
-0.03795446
0.03994571
-0.13230114
0.11259638
0.117209926
0.010423197
-0.042335533
-0.10552039
0.027458884
-0.10033796
-0.09605735
0.1519064
-0.016165942
0.00979082
0.121257275
0.14320043
0.022103783
0.08182253
0.1028856
0.14972135
0.0067636464
-0.005922915
-0.007860471
-0.13152333
0.17368224
-0.053455915
-0.11330076
0.077039
-0.04354625
0.116650656
0.09884342
0.053966638
-0.13051759
0.009814653
-0.026570437
-0.028664902
-0.1046889
0.041396555
0.080606274
0.07266994
-0.067577615
-0.101486504
-0.06669697
-0.12357913
0.0110357925
-0.0872836
0.16075832
-0.14004354
0.02251475
0.05270361
-0.09547366
0.022456307
0.1457122
0.14643718
-0.0049812044
0.027712427
-0.030582432
-0.013339872
-0.0087029245
0.0014964956
-0.015826922
0.15740977
-0.06535613
0.017529428
-0.031800404
-0.09363427
0.17250499
0.0777294
-0.04761944
0.16336098
0.02041
-0.08570021
0.053382836
0.016530225
0.03130871
0.0219547
-0.03137731
0.020255385
0.1113557
0.03506512
-0.059731223
0.09225448
-0.06570439
-0.08115258
0.011375114
0.12187327
0.08761968
0.098131254
-0.027085157
-0.0775181
0.029233217
-0.037274778
-0.017752215
-0.0029798576
0.1727691
-0.11112526
0.056516323
0.012445622
-0.07925099
0.15483066
-0.12195401
0.055626113
-0.12866393
0.028337488
-0.08500998
0.18113385
-0.03726741
-0.08704161
-0.051923253
-0.008282031
0.055838417
0.09124677
0.15523419
0.008886697
0.16548082
0.12260314
-0.029721709
0.16727437
0.07344431
-0.09691979
0.04564747
-0.055460263
0.026893107
0.104949094
-0.024711076
-0.13741459
0.16169067
0.14852257
-0.10923364
0.042172413
-0.10448307
0.012139277
-0.10577542
-0.085085094
0.024471331
-0.10868979
-0.08926465
0.14584868
-0.029325558
0.039663803
-0.0459201
-0.076714724
-0.13085537
0.040126015
0.16850284
0.015157091
-0.0060892985
-0.11267209
0.0054028626
-0.04203636
-0.02107867
-0.04934387
0.1661914
-0.08123139
0.00169693
0.12624179
0.021945987
-0.13956039
0.10366193
0.049201366
-0.14364901
0.109625675
0.047937356
-0.034726467
-0.01026602
-0.12597974
0.086511776
-0.020939961
0.10010145
-0.06795135
-0.108330235
-0.06161223
0.00014774047
0.043936543
-0.05215953
0.08227772
-0.11521896
-0.05877052
0.15481131
-0.12592548
-0.13051175
0.04148861
0.14366381
0.015711948
0.08144651
0.16841748
0.006324346
-0.08090275
0.0022536903
-0.053988997
-0.045192104
0.09736433
0.06690659
-0.1019546
0.11851963
-0.09302006
0.110004045
0.0819142
0.112750575
-0.010044711
0.0200025
0.12451767
0.13732402
-0.09551643
-0.020099508
0.0760618
-0.04672644
0.11664895
0.092556275
-0.031769983
0.051037718
-0.08437858
-0.06608063
-0.048812665
0.15781571
0.10205771
-0.045949195
0.12526299
-0.13797018
-0.00651806
0.042579666
-0.12534143
0.008018859
0.03362419
-0.03258137
-0.083104774
-0.09793776
-0.062270824
0.11708626
0.1202687
0.057462096
-0.13865909
0.07134159
0.13150887
-0.093672775
-0.060318757
0.090344936
0.04564454
0.0578296
0.06366752
0.039897215
0.121096924
0.0974766
-0.0018926626
-0.053119864
0.053132463
-0.08941677
-0.12906396
-0.11679961
-0.13512044
-0.022469431
0.10728744
0.04547934
-0.012630235
0.04955186
-0.056255307
-0.07866514
-0.032524046
0.13872097
0.019383283
-0.029793143
0.16944009
-0.03974616
-0.13471349
0.0055902246
0.10922975
-0.08798654
0.011749698
0.12481018
0.05072117
0.11459534
-0.047467653
0.11896284
0.09384982
0.047941025
-0.043375466
0.04530002
0.17056063
-0.07172863
0.14310254
-0.11044871
-0.13399781
0.08004271
0.015518405
-0.08638249
0.014663473
-0.051855937
-0.030432397
-0.13755843
-0.13266347
0.11521382
0.02577061
0.039141152
0.15237027
0.016551854
-0.06751195
-0.11266757
0.07065398
0.07164618
-0.02468946
-0.08383289
-0.07663381
-0.12443703
0.13645774
-0.11577214
0.07480468
-0.050978903
0.11942206
-0.01521982
-0.03394071
-0.076536894
0.038156547
0.045700613
0.0474596
0.17078096
-0.04344134
-0.10154374
-0.050508667
0.038083147
-0.008158013
0.11469915
-0.08420586
0.12953962
-0.08984828
-0.012373984
0.10748429
-0.054928247
-0.03751328
0.062791474
0.030530486
0.11255075
-0.14182708
0.085418046
-0.09441255
-0.00024640988
-0.020978816
-0.06463278
0.110659905
0.0074184705
-0.1354362
-0.04994219
0.07459009
0.058012094
0.042378686
0.011958165
0.12144186
0.047274638
0.010242366
0.09198244
-0.044513144
-0.03804858
0.12712874
0.07191981
-0.10668645
-0.011090385
-0.080110006
-0.060249157
-0.030872233
-0.1382288
0.07164954
-0.030727481
0.027638016
-0.117568456
0.020643607
-0.09960483
0.050060842
0.16512446
-0.06817436
-0.0003270934
0.05719499
0.088431105
0.06210764
-0.0342182
-0.049687766
-0.046856802
0.14475907
-0.0030163205
0.1172987
-0.03172526
-0.09381734
-0.006575217
0.14516653
-0.1420824
0.064309254
-0.05752469
0.14269327
0.1039761
0.05121259
0.060862817
0.15129288
0.14304325
-0.03773871
-0.13140178
0.1639017
0.00336898
-0.09744452
0.096919276
0.075811855
0.089952834
0.05511762
0.06253522
-0.07660824
0.008964751
-0.02656503
-0.12687549
0.08913105
0.09013572
0.05095648
0.058154363
-0.12052076
-0.048790466
0.03325731
-0.0473453
-0.089388356
-0.14287615
-0.05497319
0.038784925
-0.09701783
0.11772756
-0.139005
0.11323304
0.075649805
-0.13623329
0.12046312
0.11722617
0.15679014
0.057948254
-0.002989481
0.07731036
0.14520085
0.06797978
0.07629744
0.04651663
-0.12294775
0.11921114
0.10510157
-0.0763112
0.059142873
-0.101173066
0.084499694
0.097449854
-0.11284038
-0.007903621
0.1522403
-0.014528221
0.03563841
-0.045465045
-0.08777763
-0.037201438
-0.02812261
-0.05256182
-0.09525786
0.048894133
0.054764558
0.026320688
-0.105541095
0.109373845
-0.1093218
0.09393095
-0.12842287
-0.073360614
-0.09901386
-0.10964974
-0.033958644
0.1589874
-0.105136715
-0.0831269
-0.12532476
0.0291255
0.16409972
-0.017648444
-0.07139931
-0.09276909
-0.0006946632
-0.07381311
0.065694086
0.13622676
0.08534378
-0.076169275
-0.01317269
-0.072104655
0.1410996
-0.08324042
0.029690307
-0.06334687
0.04610813
0.019423772
0.16754769
0.08649444
0.06428613
-0.0347879
-0.1474235
-0.03938205
-0.07464324
-0.12493939
0.042170744
-0.028245186
0.06808004
0.11283326
0.065819085
-0.14047572
0.067801096
-0.08627683
-0.13057725
-0.10347973
0.018605918
0.08575722
0.1331779
0.0650886
-0.073293716
-0.043314394
0.12487093
0.0024833765
-0.11045175
0.019339906
0.08070183
0.060176183
-0.086480886
-0.07902889
-0.14089663
0.119441435
-0.13220866
0.07934621
0.12803105
0.063688815
-0.07468648
-0.14402895
0.083600305
-0.06339347
0.05252486
-0.1059369
-0.0028096407
0.1202974
0.12801386
0.14483774
-0.093735516
0.08222819
-0.09855718
0.027425708
0.0013308179
0.12559834
0.09010508
0.13180782
-0.091876335
